digraph Tree {
node [shape=box, style="rounded", color="black", fontname="helvetica"] ;
edge [fontname="helvetica"] ;
0 [label="Total_Trans_Ct <= 0.3\nsquared_error = 0.1\nsamples = 4472\nvalue = 0.8"] ;
1 [label="Total_Revolving_Bal <= 0.3\nsquared_error = 0.2\nsamples = 1536\nvalue = 0.6"] ;
0 -> 1 [labeldistance=2.5, labelangle=45, headlabel="True"] ;
2 [label="Total_Trans_Amt <= 0.1\nsquared_error = 0.2\nsamples = 552\nvalue = 0.2"] ;
1 -> 2 ;
3 [label="Total_Trans_Amt <= 0.0\nsquared_error = 0.2\nsamples = 203\nvalue = 0.5"] ;
2 -> 3 ;
4 [label="Total_Trans_Ct <= 0.2\nsquared_error = 0.0\nsamples = 55\nvalue = 0.0"] ;
3 -> 4 ;
5 [label="Total_Ct_Chng_Q4_Q1 <= 0.6\nsquared_error = 0.0\nsamples = 54\nvalue = 0.0"] ;
4 -> 5 ;
6 [label="squared_error = 0.0\nsamples = 53\nvalue = 0.0"] ;
5 -> 6 ;
7 [label="squared_error = 0.0\nsamples = 1\nvalue = 1.0"] ;
5 -> 7 ;
8 [label="squared_error = 0.0\nsamples = 1\nvalue = 1.0"] ;
4 -> 8 ;
9 [label="Total_Amt_Chng_Q4_Q1 <= 0.2\nsquared_error = 0.2\nsamples = 148\nvalue = 0.6"] ;
3 -> 9 ;
10 [label="Total_Trans_Amt <= 0.0\nsquared_error = 0.2\nsamples = 73\nvalue = 0.4"] ;
9 -> 10 ;
11 [label="Total_Amt_Chng_Q4_Q1 <= 0.1\nsquared_error = 0.0\nsamples = 15\nvalue = 1.0"] ;
10 -> 11 ;
12 [label="Months_on_book <= 0.6\nsquared_error = 0.2\nsamples = 2\nvalue = 0.5"] ;
11 -> 12 ;
13 [label="squared_error = 0.0\nsamples = 1\nvalue = 0.0"] ;
12 -> 13 ;
14 [label="squared_error = 0.0\nsamples = 1\nvalue = 1.0"] ;
12 -> 14 ;
15 [label="squared_error = 0.0\nsamples = 13\nvalue = 1.0"] ;
11 -> 15 ;
16 [label="Customer_Age <= 0.3\nsquared_error = 0.2\nsamples = 58\nvalue = 0.2"] ;
10 -> 16 ;
17 [label="squared_error = 0.0\nsamples = 3\nvalue = 1.0"] ;
16 -> 17 ;
18 [label="Months_Inactive_12_mon <= 0.3\nsquared_error = 0.1\nsamples = 55\nvalue = 0.2"] ;
16 -> 18 ;
19 [label="Total_Relationship_Count <= 0.7\nsquared_error = 0.2\nsamples = 6\nvalue = 0.6"] ;
18 -> 19 ;
20 [label="Total_Trans_Ct <= 0.1\nsquared_error = 0.2\nsamples = 3\nvalue = 0.2"] ;
19 -> 20 ;
21 [label="squared_error = 0.0\nsamples = 1\nvalue = 1.0"] ;
20 -> 21 ;
22 [label="squared_error = 0.0\nsamples = 2\nvalue = 0.0"] ;
20 -> 22 ;
23 [label="squared_error = 0.0\nsamples = 3\nvalue = 1.0"] ;
19 -> 23 ;
24 [label="Total_Ct_Chng_Q4_Q1 <= 0.2\nsquared_error = 0.1\nsamples = 49\nvalue = 0.1"] ;
18 -> 24 ;
25 [label="Total_Revolving_Bal <= 0.2\nsquared_error = 0.1\nsamples = 47\nvalue = 0.1"] ;
24 -> 25 ;
26 [label="Months_on_book <= 0.9\nsquared_error = 0.1\nsamples = 46\nvalue = 0.1"] ;
25 -> 26 ;
27 [label="Total_Amt_Chng_Q4_Q1 <= 0.2\nsquared_error = 0.1\nsamples = 45\nvalue = 0.1"] ;
26 -> 27 ;
28 [label="Months_on_book <= 0.4\nsquared_error = 0.0\nsamples = 40\nvalue = 0.0"] ;
27 -> 28 ;
29 [label="Education_Level <= 0.3\nsquared_error = 0.2\nsamples = 3\nvalue = 0.3"] ;
28 -> 29 ;
30 [label="squared_error = 0.0\nsamples = 2\nvalue = 0.0"] ;
29 -> 30 ;
31 [label="squared_error = 0.0\nsamples = 1\nvalue = 1.0"] ;
29 -> 31 ;
32 [label="Customer_Age <= 0.6\nsquared_error = 0.0\nsamples = 37\nvalue = 0.0"] ;
28 -> 32 ;
33 [label="squared_error = 0.0\nsamples = 33\nvalue = 0.0"] ;
32 -> 33 ;
34 [label="Customer_Age <= 0.6\nsquared_error = 0.1\nsamples = 4\nvalue = 0.2"] ;
32 -> 34 ;
35 [label="squared_error = 0.0\nsamples = 1\nvalue = 1.0"] ;
34 -> 35 ;
36 [label="squared_error = 0.0\nsamples = 3\nvalue = 0.0"] ;
34 -> 36 ;
37 [label="Total_Trans_Amt <= 0.1\nsquared_error = 0.2\nsamples = 5\nvalue = 0.2"] ;
27 -> 37 ;
38 [label="squared_error = 0.0\nsamples = 2\nvalue = 1.0"] ;
37 -> 38 ;
39 [label="squared_error = 0.0\nsamples = 3\nvalue = 0.0"] ;
37 -> 39 ;
40 [label="squared_error = 0.0\nsamples = 1\nvalue = 1.0"] ;
26 -> 40 ;
41 [label="squared_error = 0.0\nsamples = 1\nvalue = 1.0"] ;
25 -> 41 ;
42 [label="squared_error = 0.0\nsamples = 2\nvalue = 1.0"] ;
24 -> 42 ;
43 [label="Total_Relationship_Count <= 0.3\nsquared_error = 0.1\nsamples = 75\nvalue = 0.9"] ;
9 -> 43 ;
44 [label="squared_error = 0.0\nsamples = 6\nvalue = 0.0"] ;
43 -> 44 ;
45 [label="Dependent_count <= 0.1\nsquared_error = 0.1\nsamples = 69\nvalue = 0.9"] ;
43 -> 45 ;
46 [label="Total_Amt_Chng_Q4_Q1 <= 0.2\nsquared_error = 0.2\nsamples = 10\nvalue = 0.6"] ;
45 -> 46 ;
47 [label="squared_error = 0.0\nsamples = 7\nvalue = 1.0"] ;
46 -> 47 ;
48 [label="squared_error = 0.0\nsamples = 3\nvalue = 0.0"] ;
46 -> 48 ;
49 [label="Total_Amt_Chng_Q4_Q1 <= 0.2\nsquared_error = 0.0\nsamples = 59\nvalue = 1.0"] ;
45 -> 49 ;
50 [label="Marital_Status <= 0.8\nsquared_error = 0.2\nsamples = 2\nvalue = 0.7"] ;
49 -> 50 ;
51 [label="squared_error = 0.0\nsamples = 1\nvalue = 0.0"] ;
50 -> 51 ;
52 [label="squared_error = 0.0\nsamples = 1\nvalue = 1.0"] ;
50 -> 52 ;
53 [label="Total_Ct_Chng_Q4_Q1 <= 0.1\nsquared_error = 0.0\nsamples = 57\nvalue = 1.0"] ;
49 -> 53 ;
54 [label="Total_Ct_Chng_Q4_Q1 <= 0.1\nsquared_error = 0.2\nsamples = 5\nvalue = 0.8"] ;
53 -> 54 ;
55 [label="squared_error = 0.0\nsamples = 4\nvalue = 1.0"] ;
54 -> 55 ;
56 [label="squared_error = 0.0\nsamples = 1\nvalue = 0.0"] ;
54 -> 56 ;
57 [label="squared_error = 0.0\nsamples = 52\nvalue = 1.0"] ;
53 -> 57 ;
58 [label="Total_Ct_Chng_Q4_Q1 <= 0.2\nsquared_error = 0.1\nsamples = 349\nvalue = 0.1"] ;
2 -> 58 ;
59 [label="Customer_Age <= 0.0\nsquared_error = 0.1\nsamples = 329\nvalue = 0.1"] ;
58 -> 59 ;
60 [label="squared_error = 0.0\nsamples = 7\nvalue = 1.0"] ;
59 -> 60 ;
61 [label="Total_Amt_Chng_Q4_Q1 <= 0.4\nsquared_error = 0.1\nsamples = 322\nvalue = 0.1"] ;
59 -> 61 ;
62 [label="Customer_Age <= 0.8\nsquared_error = 0.1\nsamples = 321\nvalue = 0.1"] ;
61 -> 62 ;
63 [label="Months_Inactive_12_mon <= 0.3\nsquared_error = 0.1\nsamples = 319\nvalue = 0.1"] ;
62 -> 63 ;
64 [label="Avg_Open_To_Buy <= 0.7\nsquared_error = 0.2\nsamples = 23\nvalue = 0.2"] ;
63 -> 64 ;
65 [label="Total_Trans_Amt <= 0.1\nsquared_error = 0.1\nsamples = 19\nvalue = 0.1"] ;
64 -> 65 ;
66 [label="Total_Amt_Chng_Q4_Q1 <= 0.2\nsquared_error = 0.2\nsamples = 5\nvalue = 0.6"] ;
65 -> 66 ;
67 [label="squared_error = 0.0\nsamples = 2\nvalue = 0.0"] ;
66 -> 67 ;
68 [label="squared_error = 0.0\nsamples = 3\nvalue = 1.0"] ;
66 -> 68 ;
69 [label="squared_error = 0.0\nsamples = 14\nvalue = 0.0"] ;
65 -> 69 ;
70 [label="squared_error = 0.0\nsamples = 4\nvalue = 1.0"] ;
64 -> 70 ;
71 [label="Total_Ct_Chng_Q4_Q1 <= 0.2\nsquared_error = 0.0\nsamples = 296\nvalue = 0.0"] ;
63 -> 71 ;
72 [label="Gender <= 0.5\nsquared_error = 0.0\nsamples = 258\nvalue = 0.0"] ;
71 -> 72 ;
73 [label="squared_error = 0.0\nsamples = 177\nvalue = 0.0"] ;
72 -> 73 ;
74 [label="Total_Relationship_Count <= 0.5\nsquared_error = 0.1\nsamples = 81\nvalue = 0.1"] ;
72 -> 74 ;
75 [label="squared_error = 0.0\nsamples = 44\nvalue = 0.0"] ;
74 -> 75 ;
76 [label="Total_Revolving_Bal <= 0.2\nsquared_error = 0.2\nsamples = 37\nvalue = 0.2"] ;
74 -> 76 ;
77 [label="Total_Amt_Chng_Q4_Q1 <= 0.3\nsquared_error = 0.1\nsamples = 36\nvalue = 0.2"] ;
76 -> 77 ;
78 [label="Customer_Age <= 0.2\nsquared_error = 0.1\nsamples = 33\nvalue = 0.1"] ;
77 -> 78 ;
79 [label="Months_on_book <= 0.4\nsquared_error = 0.2\nsamples = 3\nvalue = 0.7"] ;
78 -> 79 ;
80 [label="squared_error = 0.0\nsamples = 2\nvalue = 1.0"] ;
79 -> 80 ;
81 [label="squared_error = 0.0\nsamples = 1\nvalue = 0.0"] ;
79 -> 81 ;
82 [label="Total_Trans_Amt <= 0.1\nsquared_error = 0.0\nsamples = 30\nvalue = 0.1"] ;
78 -> 82 ;
83 [label="Avg_Open_To_Buy <= 1.0\nsquared_error = 0.0\nsamples = 29\nvalue = 0.0"] ;
82 -> 83 ;
84 [label="squared_error = 0.0\nsamples = 27\nvalue = 0.0"] ;
83 -> 84 ;
85 [label="Total_Trans_Amt <= 0.1\nsquared_error = 0.2\nsamples = 2\nvalue = 0.5"] ;
83 -> 85 ;
86 [label="squared_error = 0.0\nsamples = 1\nvalue = 0.0"] ;
85 -> 86 ;
87 [label="squared_error = 0.0\nsamples = 1\nvalue = 1.0"] ;
85 -> 87 ;
88 [label="squared_error = 0.0\nsamples = 1\nvalue = 1.0"] ;
82 -> 88 ;
89 [label="Marital_Status <= 0.5\nsquared_error = 0.2\nsamples = 3\nvalue = 0.8"] ;
77 -> 89 ;
90 [label="squared_error = 0.0\nsamples = 2\nvalue = 1.0"] ;
89 -> 90 ;
91 [label="squared_error = 0.0\nsamples = 1\nvalue = 0.0"] ;
89 -> 91 ;
92 [label="squared_error = 0.0\nsamples = 1\nvalue = 1.0"] ;
76 -> 92 ;
93 [label="Total_Ct_Chng_Q4_Q1 <= 0.2\nsquared_error = 0.1\nsamples = 38\nvalue = 0.2"] ;
71 -> 93 ;
94 [label="Income_Category <= 0.7\nsquared_error = 0.1\nsamples = 4\nvalue = 0.8"] ;
93 -> 94 ;
95 [label="squared_error = 0.0\nsamples = 1\nvalue = 0.0"] ;
94 -> 95 ;
96 [label="squared_error = 0.0\nsamples = 3\nvalue = 1.0"] ;
94 -> 96 ;
97 [label="Total_Amt_Chng_Q4_Q1 <= 0.3\nsquared_error = 0.1\nsamples = 34\nvalue = 0.1"] ;
93 -> 97 ;
98 [label="Customer_Age <= 0.2\nsquared_error = 0.0\nsamples = 31\nvalue = 0.0"] ;
97 -> 98 ;
99 [label="Education_Level <= 0.4\nsquared_error = 0.2\nsamples = 3\nvalue = 0.3"] ;
98 -> 99 ;
100 [label="squared_error = 0.0\nsamples = 1\nvalue = 1.0"] ;
99 -> 100 ;
101 [label="squared_error = 0.0\nsamples = 2\nvalue = 0.0"] ;
99 -> 101 ;
102 [label="squared_error = 0.0\nsamples = 28\nvalue = 0.0"] ;
98 -> 102 ;
103 [label="Months_Inactive_12_mon <= 0.4\nsquared_error = 0.2\nsamples = 3\nvalue = 0.8"] ;
97 -> 103 ;
104 [label="squared_error = 0.0\nsamples = 1\nvalue = 0.0"] ;
103 -> 104 ;
105 [label="squared_error = 0.0\nsamples = 2\nvalue = 1.0"] ;
103 -> 105 ;
106 [label="squared_error = 0.0\nsamples = 2\nvalue = 1.0"] ;
62 -> 106 ;
107 [label="squared_error = 0.0\nsamples = 1\nvalue = 1.0"] ;
61 -> 107 ;
108 [label="Total_Relationship_Count <= 0.5\nsquared_error = 0.2\nsamples = 20\nvalue = 0.7"] ;
58 -> 108 ;
109 [label="Credit_Limit <= 0.4\nsquared_error = 0.1\nsamples = 6\nvalue = 0.1"] ;
108 -> 109 ;
110 [label="squared_error = 0.0\nsamples = 5\nvalue = 0.0"] ;
109 -> 110 ;
111 [label="squared_error = 0.0\nsamples = 1\nvalue = 1.0"] ;
109 -> 111 ;
112 [label="Avg_Open_To_Buy <= 0.1\nsquared_error = 0.1\nsamples = 14\nvalue = 0.9"] ;
108 -> 112 ;
113 [label="squared_error = 0.0\nsamples = 3\nvalue = 0.0"] ;
112 -> 113 ;
114 [label="squared_error = 0.0\nsamples = 11\nvalue = 1.0"] ;
112 -> 114 ;
115 [label="Total_Relationship_Count <= 0.3\nsquared_error = 0.2\nsamples = 984\nvalue = 0.8"] ;
1 -> 115 ;
116 [label="Total_Ct_Chng_Q4_Q1 <= 0.2\nsquared_error = 0.2\nsamples = 90\nvalue = 0.3"] ;
115 -> 116 ;
117 [label="Months_Inactive_12_mon <= 0.3\nsquared_error = 0.1\nsamples = 76\nvalue = 0.2"] ;
116 -> 117 ;
118 [label="Total_Trans_Ct <= 0.2\nsquared_error = 0.2\nsamples = 7\nvalue = 0.6"] ;
117 -> 118 ;
119 [label="Total_Amt_Chng_Q4_Q1 <= 0.2\nsquared_error = 0.1\nsamples = 5\nvalue = 0.1"] ;
118 -> 119 ;
120 [label="squared_error = 0.0\nsamples = 4\nvalue = 0.0"] ;
119 -> 120 ;
121 [label="squared_error = 0.0\nsamples = 1\nvalue = 1.0"] ;
119 -> 121 ;
122 [label="squared_error = 0.0\nsamples = 2\nvalue = 1.0"] ;
118 -> 122 ;
123 [label="Total_Trans_Amt <= 0.1\nsquared_error = 0.1\nsamples = 69\nvalue = 0.1"] ;
117 -> 123 ;
124 [label="Total_Revolving_Bal <= 0.6\nsquared_error = 0.2\nsamples = 23\nvalue = 0.3"] ;
123 -> 124 ;
125 [label="Total_Trans_Ct <= 0.1\nsquared_error = 0.2\nsamples = 12\nvalue = 0.6"] ;
124 -> 125 ;
126 [label="squared_error = 0.0\nsamples = 3\nvalue = 0.0"] ;
125 -> 126 ;
127 [label="Total_Amt_Chng_Q4_Q1 <= 0.1\nsquared_error = 0.2\nsamples = 9\nvalue = 0.8"] ;
125 -> 127 ;
128 [label="Avg_Utilization_Ratio <= 0.2\nsquared_error = 0.2\nsamples = 3\nvalue = 0.2"] ;
127 -> 128 ;
129 [label="squared_error = 0.0\nsamples = 2\nvalue = 0.0"] ;
128 -> 129 ;
130 [label="squared_error = 0.0\nsamples = 1\nvalue = 1.0"] ;
128 -> 130 ;
131 [label="squared_error = 0.0\nsamples = 6\nvalue = 1.0"] ;
127 -> 131 ;
132 [label="squared_error = 0.0\nsamples = 11\nvalue = 0.0"] ;
124 -> 132 ;
133 [label="Education_Level <= 0.1\nsquared_error = 0.0\nsamples = 46\nvalue = 0.0"] ;
123 -> 133 ;
134 [label="Income_Category <= 0.4\nsquared_error = 0.2\nsamples = 4\nvalue = 0.2"] ;
133 -> 134 ;
135 [label="squared_error = 0.0\nsamples = 1\nvalue = 1.0"] ;
134 -> 135 ;
136 [label="squared_error = 0.0\nsamples = 3\nvalue = 0.0"] ;
134 -> 136 ;
137 [label="squared_error = 0.0\nsamples = 42\nvalue = 0.0"] ;
133 -> 137 ;
138 [label="Total_Trans_Amt <= 0.1\nsquared_error = 0.2\nsamples = 14\nvalue = 0.7"] ;
116 -> 138 ;
139 [label="squared_error = 0.0\nsamples = 10\nvalue = 1.0"] ;
138 -> 139 ;
140 [label="squared_error = 0.0\nsamples = 4\nvalue = 0.0"] ;
138 -> 140 ;
141 [label="Total_Trans_Amt <= 0.1\nsquared_error = 0.1\nsamples = 894\nvalue = 0.9"] ;
115 -> 141 ;
142 [label="Total_Trans_Amt <= 0.0\nsquared_error = 0.1\nsamples = 650\nvalue = 0.9"] ;
141 -> 142 ;
143 [label="Total_Amt_Chng_Q4_Q1 <= 0.3\nsquared_error = 0.1\nsamples = 11\nvalue = 0.1"] ;
142 -> 143 ;
144 [label="squared_error = 0.0\nsamples = 10\nvalue = 0.0"] ;
143 -> 144 ;
145 [label="squared_error = 0.0\nsamples = 1\nvalue = 1.0"] ;
143 -> 145 ;
146 [label="Total_Amt_Chng_Q4_Q1 <= 0.1\nsquared_error = 0.0\nsamples = 639\nvalue = 0.9"] ;
142 -> 146 ;
147 [label="Total_Trans_Amt <= 0.1\nsquared_error = 0.2\nsamples = 111\nvalue = 0.8"] ;
146 -> 147 ;
148 [label="Avg_Open_To_Buy <= 0.0\nsquared_error = 0.0\nsamples = 59\nvalue = 1.0"] ;
147 -> 148 ;
149 [label="squared_error = 0.0\nsamples = 2\nvalue = 0.0"] ;
148 -> 149 ;
150 [label="squared_error = 0.0\nsamples = 57\nvalue = 1.0"] ;
148 -> 150 ;
151 [label="Customer_Age <= 0.6\nsquared_error = 0.2\nsamples = 52\nvalue = 0.6"] ;
147 -> 151 ;
152 [label="Total_Trans_Ct <= 0.3\nsquared_error = 0.2\nsamples = 31\nvalue = 0.4"] ;
151 -> 152 ;
153 [label="Total_Amt_Chng_Q4_Q1 <= 0.1\nsquared_error = 0.1\nsamples = 20\nvalue = 0.1"] ;
152 -> 153 ;
154 [label="Months_on_book <= 0.2\nsquared_error = 0.0\nsamples = 18\nvalue = 0.0"] ;
153 -> 154 ;
155 [label="squared_error = 0.0\nsamples = 1\nvalue = 1.0"] ;
154 -> 155 ;
156 [label="squared_error = 0.0\nsamples = 17\nvalue = 0.0"] ;
154 -> 156 ;
157 [label="squared_error = 0.0\nsamples = 2\nvalue = 1.0"] ;
153 -> 157 ;
158 [label="Total_Trans_Ct <= 0.3\nsquared_error = 0.2\nsamples = 11\nvalue = 0.7"] ;
152 -> 158 ;
159 [label="Contacts_Count_12_mon <= 0.6\nsquared_error = 0.1\nsamples = 9\nvalue = 0.9"] ;
158 -> 159 ;
160 [label="squared_error = 0.0\nsamples = 8\nvalue = 1.0"] ;
159 -> 160 ;
161 [label="squared_error = 0.0\nsamples = 1\nvalue = 0.0"] ;
159 -> 161 ;
162 [label="squared_error = 0.0\nsamples = 2\nvalue = 0.0"] ;
158 -> 162 ;
163 [label="Marital_Status <= 0.5\nsquared_error = 0.1\nsamples = 21\nvalue = 0.9"] ;
151 -> 163 ;
164 [label="squared_error = 0.0\nsamples = 17\nvalue = 1.0"] ;
163 -> 164 ;
165 [label="Total_Amt_Chng_Q4_Q1 <= 0.1\nsquared_error = 0.2\nsamples = 4\nvalue = 0.5"] ;
163 -> 165 ;
166 [label="squared_error = 0.0\nsamples = 1\nvalue = 1.0"] ;
165 -> 166 ;
167 [label="squared_error = 0.0\nsamples = 3\nvalue = 0.0"] ;
165 -> 167 ;
168 [label="Avg_Open_To_Buy <= 1.0\nsquared_error = 0.0\nsamples = 528\nvalue = 1.0"] ;
146 -> 168 ;
169 [label="Total_Trans_Ct <= 0.0\nsquared_error = 0.0\nsamples = 527\nvalue = 1.0"] ;
168 -> 169 ;
170 [label="squared_error = 0.0\nsamples = 1\nvalue = 0.0"] ;
169 -> 170 ;
171 [label="Contacts_Count_12_mon <= 0.9\nsquared_error = 0.0\nsamples = 526\nvalue = 1.0"] ;
169 -> 171 ;
172 [label="Total_Trans_Amt <= 0.0\nsquared_error = 0.0\nsamples = 525\nvalue = 1.0"] ;
171 -> 172 ;
173 [label="Total_Trans_Amt <= 0.0\nsquared_error = 0.1\nsamples = 33\nvalue = 0.9"] ;
172 -> 173 ;
174 [label="Dependent_count <= 0.1\nsquared_error = 0.1\nsamples = 32\nvalue = 0.9"] ;
173 -> 174 ;
175 [label="Total_Trans_Ct <= 0.1\nsquared_error = 0.2\nsamples = 2\nvalue = 0.3"] ;
174 -> 175 ;
176 [label="squared_error = 0.0\nsamples = 1\nvalue = 0.0"] ;
175 -> 176 ;
177 [label="squared_error = 0.0\nsamples = 1\nvalue = 1.0"] ;
175 -> 177 ;
178 [label="Total_Revolving_Bal <= 0.4\nsquared_error = 0.1\nsamples = 30\nvalue = 0.9"] ;
174 -> 178 ;
179 [label="Avg_Open_To_Buy <= 0.1\nsquared_error = 0.2\nsamples = 4\nvalue = 0.7"] ;
178 -> 179 ;
180 [label="squared_error = 0.0\nsamples = 3\nvalue = 1.0"] ;
179 -> 180 ;
181 [label="squared_error = 0.0\nsamples = 1\nvalue = 0.0"] ;
179 -> 181 ;
182 [label="squared_error = 0.0\nsamples = 26\nvalue = 1.0"] ;
178 -> 182 ;
183 [label="squared_error = 0.0\nsamples = 1\nvalue = 0.0"] ;
173 -> 183 ;
184 [label="Total_Trans_Amt <= 0.1\nsquared_error = 0.0\nsamples = 492\nvalue = 1.0"] ;
172 -> 184 ;
185 [label="Total_Revolving_Bal <= 0.3\nsquared_error = 0.0\nsamples = 483\nvalue = 1.0"] ;
184 -> 185 ;
186 [label="Credit_Limit <= 0.1\nsquared_error = 0.2\nsamples = 5\nvalue = 0.8"] ;
185 -> 186 ;
187 [label="squared_error = 0.0\nsamples = 1\nvalue = 0.0"] ;
186 -> 187 ;
188 [label="squared_error = 0.0\nsamples = 4\nvalue = 1.0"] ;
186 -> 188 ;
189 [label="Total_Trans_Amt <= 0.1\nsquared_error = 0.0\nsamples = 478\nvalue = 1.0"] ;
185 -> 189 ;
190 [label="squared_error = 0.0\nsamples = 370\nvalue = 1.0"] ;
189 -> 190 ;
191 [label="Total_Trans_Amt <= 0.1\nsquared_error = 0.0\nsamples = 108\nvalue = 1.0"] ;
189 -> 191 ;
192 [label="squared_error = 0.0\nsamples = 1\nvalue = 0.0"] ;
191 -> 192 ;
193 [label="Total_Trans_Ct <= 0.2\nsquared_error = 0.0\nsamples = 107\nvalue = 1.0"] ;
191 -> 193 ;
194 [label="Education_Level <= 0.8\nsquared_error = 0.1\nsamples = 7\nvalue = 0.9"] ;
193 -> 194 ;
195 [label="squared_error = 0.0\nsamples = 6\nvalue = 1.0"] ;
194 -> 195 ;
196 [label="squared_error = 0.0\nsamples = 1\nvalue = 0.0"] ;
194 -> 196 ;
197 [label="squared_error = 0.0\nsamples = 100\nvalue = 1.0"] ;
193 -> 197 ;
198 [label="Total_Amt_Chng_Q4_Q1 <= 0.2\nsquared_error = 0.1\nsamples = 9\nvalue = 0.9"] ;
184 -> 198 ;
199 [label="squared_error = 0.0\nsamples = 2\nvalue = 0.0"] ;
198 -> 199 ;
200 [label="squared_error = 0.0\nsamples = 7\nvalue = 1.0"] ;
198 -> 200 ;
201 [label="squared_error = 0.0\nsamples = 1\nvalue = 0.0"] ;
171 -> 201 ;
202 [label="squared_error = 0.0\nsamples = 1\nvalue = 0.0"] ;
168 -> 202 ;
203 [label="Customer_Age <= 0.3\nsquared_error = 0.2\nsamples = 244\nvalue = 0.6"] ;
141 -> 203 ;
204 [label="Contacts_Count_12_mon <= 0.9\nsquared_error = 0.1\nsamples = 109\nvalue = 0.9"] ;
203 -> 204 ;
205 [label="Total_Ct_Chng_Q4_Q1 <= 0.1\nsquared_error = 0.1\nsamples = 107\nvalue = 0.9"] ;
204 -> 205 ;
206 [label="Months_on_book <= 0.3\nsquared_error = 0.2\nsamples = 9\nvalue = 0.5"] ;
205 -> 206 ;
207 [label="squared_error = 0.0\nsamples = 5\nvalue = 1.0"] ;
206 -> 207 ;
208 [label="squared_error = 0.0\nsamples = 4\nvalue = 0.0"] ;
206 -> 208 ;
209 [label="Avg_Open_To_Buy <= 0.0\nsquared_error = 0.0\nsamples = 98\nvalue = 1.0"] ;
205 -> 209 ;
210 [label="Total_Trans_Amt <= 0.1\nsquared_error = 0.2\nsamples = 7\nvalue = 0.6"] ;
209 -> 210 ;
211 [label="squared_error = 0.0\nsamples = 3\nvalue = 0.0"] ;
210 -> 211 ;
212 [label="squared_error = 0.0\nsamples = 4\nvalue = 1.0"] ;
210 -> 212 ;
213 [label="Dependent_count <= 0.7\nsquared_error = 0.0\nsamples = 91\nvalue = 1.0"] ;
209 -> 213 ;
214 [label="Marital_Status <= 0.2\nsquared_error = 0.0\nsamples = 88\nvalue = 1.0"] ;
213 -> 214 ;
215 [label="Total_Ct_Chng_Q4_Q1 <= 0.2\nsquared_error = 0.2\nsamples = 5\nvalue = 0.8"] ;
214 -> 215 ;
216 [label="squared_error = 0.0\nsamples = 1\nvalue = 0.0"] ;
215 -> 216 ;
217 [label="squared_error = 0.0\nsamples = 4\nvalue = 1.0"] ;
215 -> 217 ;
218 [label="Months_on_book <= 0.2\nsquared_error = 0.0\nsamples = 83\nvalue = 1.0"] ;
214 -> 218 ;
219 [label="Dependent_count <= 0.5\nsquared_error = 0.0\nsamples = 21\nvalue = 1.0"] ;
218 -> 219 ;
220 [label="squared_error = 0.0\nsamples = 20\nvalue = 1.0"] ;
219 -> 220 ;
221 [label="squared_error = 0.0\nsamples = 1\nvalue = 0.0"] ;
219 -> 221 ;
222 [label="squared_error = 0.0\nsamples = 62\nvalue = 1.0"] ;
218 -> 222 ;
223 [label="Education_Level <= 0.2\nsquared_error = 0.2\nsamples = 3\nvalue = 0.7"] ;
213 -> 223 ;
224 [label="squared_error = 0.0\nsamples = 1\nvalue = 0.0"] ;
223 -> 224 ;
225 [label="squared_error = 0.0\nsamples = 2\nvalue = 1.0"] ;
223 -> 225 ;
226 [label="squared_error = 0.0\nsamples = 2\nvalue = 0.0"] ;
204 -> 226 ;
227 [label="Total_Ct_Chng_Q4_Q1 <= 0.2\nsquared_error = 0.2\nsamples = 135\nvalue = 0.4"] ;
203 -> 227 ;
228 [label="Total_Trans_Ct <= 0.3\nsquared_error = 0.2\nsamples = 104\nvalue = 0.3"] ;
227 -> 228 ;
229 [label="Total_Amt_Chng_Q4_Q1 <= 0.3\nsquared_error = 0.1\nsamples = 88\nvalue = 0.2"] ;
228 -> 229 ;
230 [label="Total_Trans_Amt <= 0.1\nsquared_error = 0.1\nsamples = 82\nvalue = 0.1"] ;
229 -> 230 ;
231 [label="Total_Ct_Chng_Q4_Q1 <= 0.1\nsquared_error = 0.2\nsamples = 20\nvalue = 0.5"] ;
230 -> 231 ;
232 [label="squared_error = 0.0\nsamples = 7\nvalue = 0.0"] ;
231 -> 232 ;
233 [label="Total_Trans_Amt <= 0.1\nsquared_error = 0.2\nsamples = 13\nvalue = 0.8"] ;
231 -> 233 ;
234 [label="squared_error = 0.0\nsamples = 2\nvalue = 0.0"] ;
233 -> 234 ;
235 [label="Total_Trans_Ct <= 0.2\nsquared_error = 0.1\nsamples = 11\nvalue = 0.9"] ;
233 -> 235 ;
236 [label="squared_error = 0.0\nsamples = 1\nvalue = 0.0"] ;
235 -> 236 ;
237 [label="squared_error = 0.0\nsamples = 10\nvalue = 1.0"] ;
235 -> 237 ;
238 [label="Avg_Utilization_Ratio <= 0.1\nsquared_error = 0.1\nsamples = 62\nvalue = 0.1"] ;
230 -> 238 ;
239 [label="Avg_Utilization_Ratio <= 0.0\nsquared_error = 0.2\nsamples = 4\nvalue = 0.8"] ;
238 -> 239 ;
240 [label="squared_error = 0.0\nsamples = 1\nvalue = 0.0"] ;
239 -> 240 ;
241 [label="squared_error = 0.0\nsamples = 3\nvalue = 1.0"] ;
239 -> 241 ;
242 [label="Total_Trans_Amt <= 0.2\nsquared_error = 0.0\nsamples = 58\nvalue = 0.0"] ;
238 -> 242 ;
243 [label="squared_error = 0.0\nsamples = 57\nvalue = 0.0"] ;
242 -> 243 ;
244 [label="squared_error = 0.0\nsamples = 1\nvalue = 1.0"] ;
242 -> 244 ;
245 [label="Avg_Open_To_Buy <= 0.6\nsquared_error = 0.1\nsamples = 6\nvalue = 0.9"] ;
229 -> 245 ;
246 [label="squared_error = 0.0\nsamples = 5\nvalue = 1.0"] ;
245 -> 246 ;
247 [label="squared_error = 0.0\nsamples = 1\nvalue = 0.0"] ;
245 -> 247 ;
248 [label="Total_Revolving_Bal <= 1.0\nsquared_error = 0.2\nsamples = 16\nvalue = 0.7"] ;
228 -> 248 ;
249 [label="Total_Trans_Ct <= 0.3\nsquared_error = 0.1\nsamples = 11\nvalue = 0.9"] ;
248 -> 249 ;
250 [label="Contacts_Count_12_mon <= 0.7\nsquared_error = 0.2\nsamples = 2\nvalue = 0.3"] ;
249 -> 250 ;
251 [label="squared_error = 0.0\nsamples = 1\nvalue = 0.0"] ;
250 -> 251 ;
252 [label="squared_error = 0.0\nsamples = 1\nvalue = 1.0"] ;
250 -> 252 ;
253 [label="squared_error = 0.0\nsamples = 9\nvalue = 1.0"] ;
249 -> 253 ;
254 [label="Customer_Age <= 0.7\nsquared_error = 0.1\nsamples = 5\nvalue = 0.1"] ;
248 -> 254 ;
255 [label="squared_error = 0.0\nsamples = 4\nvalue = 0.0"] ;
254 -> 255 ;
256 [label="squared_error = 0.0\nsamples = 1\nvalue = 1.0"] ;
254 -> 256 ;
257 [label="Total_Trans_Amt <= 0.3\nsquared_error = 0.0\nsamples = 31\nvalue = 1.0"] ;
227 -> 257 ;
258 [label="Dependent_count <= 0.9\nsquared_error = 0.0\nsamples = 30\nvalue = 1.0"] ;
257 -> 258 ;
259 [label="squared_error = 0.0\nsamples = 28\nvalue = 1.0"] ;
258 -> 259 ;
260 [label="Months_Inactive_12_mon <= 0.5\nsquared_error = 0.2\nsamples = 2\nvalue = 0.7"] ;
258 -> 260 ;
261 [label="squared_error = 0.0\nsamples = 1\nvalue = 1.0"] ;
260 -> 261 ;
262 [label="squared_error = 0.0\nsamples = 1\nvalue = 0.0"] ;
260 -> 262 ;
263 [label="squared_error = 0.0\nsamples = 1\nvalue = 0.0"] ;
257 -> 263 ;
264 [label="Total_Trans_Amt <= 0.3\nsquared_error = 0.0\nsamples = 2936\nvalue = 1.0"] ;
0 -> 264 [labeldistance=2.5, labelangle=-45, headlabel="False"] ;
265 [label="Contacts_Count_12_mon <= 0.9\nsquared_error = 0.0\nsamples = 2281\nvalue = 1.0"] ;
264 -> 265 ;
266 [label="Total_Trans_Ct <= 0.4\nsquared_error = 0.0\nsamples = 2278\nvalue = 1.0"] ;
265 -> 266 ;
267 [label="Total_Amt_Chng_Q4_Q1 <= 0.1\nsquared_error = 0.1\nsamples = 348\nvalue = 0.9"] ;
266 -> 267 ;
268 [label="Total_Revolving_Bal <= 0.7\nsquared_error = 0.2\nsamples = 5\nvalue = 0.3"] ;
267 -> 268 ;
269 [label="squared_error = 0.0\nsamples = 3\nvalue = 0.0"] ;
268 -> 269 ;
270 [label="squared_error = 0.0\nsamples = 2\nvalue = 1.0"] ;
268 -> 270 ;
271 [label="Total_Trans_Amt <= 0.2\nsquared_error = 0.1\nsamples = 343\nvalue = 0.9"] ;
267 -> 271 ;
272 [label="Credit_Limit <= 0.0\nsquared_error = 0.0\nsamples = 299\nvalue = 1.0"] ;
271 -> 272 ;
273 [label="Total_Trans_Amt <= 0.1\nsquared_error = 0.2\nsamples = 45\nvalue = 0.8"] ;
272 -> 273 ;
274 [label="Dependent_count <= 0.3\nsquared_error = 0.2\nsamples = 22\nvalue = 0.5"] ;
273 -> 274 ;
275 [label="Credit_Limit <= 0.0\nsquared_error = 0.1\nsamples = 9\nvalue = 0.8"] ;
274 -> 275 ;
276 [label="squared_error = 0.0\nsamples = 7\nvalue = 1.0"] ;
275 -> 276 ;
277 [label="squared_error = 0.0\nsamples = 2\nvalue = 0.0"] ;
275 -> 277 ;
278 [label="Total_Amt_Chng_Q4_Q1 <= 0.3\nsquared_error = 0.2\nsamples = 13\nvalue = 0.3"] ;
274 -> 278 ;
279 [label="Total_Amt_Chng_Q4_Q1 <= 0.2\nsquared_error = 0.1\nsamples = 11\nvalue = 0.2"] ;
278 -> 279 ;
280 [label="Months_Inactive_12_mon <= 0.4\nsquared_error = 0.2\nsamples = 3\nvalue = 0.7"] ;
279 -> 280 ;
281 [label="squared_error = 0.0\nsamples = 2\nvalue = 1.0"] ;
280 -> 281 ;
282 [label="squared_error = 0.0\nsamples = 1\nvalue = 0.0"] ;
280 -> 282 ;
283 [label="squared_error = 0.0\nsamples = 8\nvalue = 0.0"] ;
279 -> 283 ;
284 [label="squared_error = 0.0\nsamples = 2\nvalue = 1.0"] ;
278 -> 284 ;
285 [label="squared_error = 0.0\nsamples = 23\nvalue = 1.0"] ;
273 -> 285 ;
286 [label="Total_Relationship_Count <= 0.3\nsquared_error = 0.0\nsamples = 254\nvalue = 1.0"] ;
272 -> 286 ;
287 [label="Total_Trans_Amt <= 0.1\nsquared_error = 0.2\nsamples = 7\nvalue = 0.7"] ;
286 -> 287 ;
288 [label="squared_error = 0.0\nsamples = 1\nvalue = 0.0"] ;
287 -> 288 ;
289 [label="squared_error = 0.0\nsamples = 6\nvalue = 1.0"] ;
287 -> 289 ;
290 [label="Customer_Age <= 0.5\nsquared_error = 0.0\nsamples = 247\nvalue = 1.0"] ;
286 -> 290 ;
291 [label="squared_error = 0.0\nsamples = 168\nvalue = 1.0"] ;
290 -> 291 ;
292 [label="Total_Revolving_Bal <= 0.2\nsquared_error = 0.0\nsamples = 79\nvalue = 1.0"] ;
290 -> 292 ;
293 [label="Avg_Utilization_Ratio <= 0.0\nsquared_error = 0.2\nsamples = 15\nvalue = 0.8"] ;
292 -> 293 ;
294 [label="Income_Category <= 0.9\nsquared_error = 0.1\nsamples = 14\nvalue = 0.9"] ;
293 -> 294 ;
295 [label="Education_Level <= 0.3\nsquared_error = 0.1\nsamples = 13\nvalue = 0.9"] ;
294 -> 295 ;
296 [label="Income_Category <= 0.4\nsquared_error = 0.2\nsamples = 3\nvalue = 0.7"] ;
295 -> 296 ;
297 [label="squared_error = 0.0\nsamples = 1\nvalue = 0.0"] ;
296 -> 297 ;
298 [label="squared_error = 0.0\nsamples = 2\nvalue = 1.0"] ;
296 -> 298 ;
299 [label="squared_error = 0.0\nsamples = 10\nvalue = 1.0"] ;
295 -> 299 ;
300 [label="squared_error = 0.0\nsamples = 1\nvalue = 0.0"] ;
294 -> 300 ;
301 [label="squared_error = 0.0\nsamples = 1\nvalue = 0.0"] ;
293 -> 301 ;
302 [label="Months_Inactive_12_mon <= 0.8\nsquared_error = 0.0\nsamples = 64\nvalue = 1.0"] ;
292 -> 302 ;
303 [label="Total_Revolving_Bal <= 1.0\nsquared_error = 0.0\nsamples = 62\nvalue = 1.0"] ;
302 -> 303 ;
304 [label="squared_error = 0.0\nsamples = 57\nvalue = 1.0"] ;
303 -> 304 ;
305 [label="Customer_Age <= 0.6\nsquared_error = 0.1\nsamples = 5\nvalue = 0.9"] ;
303 -> 305 ;
306 [label="squared_error = 0.0\nsamples = 1\nvalue = 0.0"] ;
305 -> 306 ;
307 [label="squared_error = 0.0\nsamples = 4\nvalue = 1.0"] ;
305 -> 307 ;
308 [label="Total_Relationship_Count <= 0.9\nsquared_error = 0.2\nsamples = 2\nvalue = 0.8"] ;
302 -> 308 ;
309 [label="squared_error = 0.0\nsamples = 1\nvalue = 0.0"] ;
308 -> 309 ;
310 [label="squared_error = 0.0\nsamples = 1\nvalue = 1.0"] ;
308 -> 310 ;
311 [label="Total_Ct_Chng_Q4_Q1 <= 0.1\nsquared_error = 0.2\nsamples = 44\nvalue = 0.7"] ;
271 -> 311 ;
312 [label="squared_error = 0.0\nsamples = 7\nvalue = 0.0"] ;
311 -> 312 ;
313 [label="Total_Trans_Ct <= 0.4\nsquared_error = 0.1\nsamples = 37\nvalue = 0.9"] ;
311 -> 313 ;
314 [label="Marital_Status <= 0.5\nsquared_error = 0.2\nsamples = 3\nvalue = 0.2"] ;
313 -> 314 ;
315 [label="squared_error = 0.0\nsamples = 1\nvalue = 1.0"] ;
314 -> 315 ;
316 [label="squared_error = 0.0\nsamples = 2\nvalue = 0.0"] ;
314 -> 316 ;
317 [label="Total_Trans_Amt <= 0.2\nsquared_error = 0.0\nsamples = 34\nvalue = 1.0"] ;
313 -> 317 ;
318 [label="squared_error = 0.0\nsamples = 1\nvalue = 0.0"] ;
317 -> 318 ;
319 [label="Total_Amt_Chng_Q4_Q1 <= 0.3\nsquared_error = 0.0\nsamples = 33\nvalue = 1.0"] ;
317 -> 319 ;
320 [label="squared_error = 0.0\nsamples = 32\nvalue = 1.0"] ;
319 -> 320 ;
321 [label="squared_error = 0.0\nsamples = 1\nvalue = 0.0"] ;
319 -> 321 ;
322 [label="Total_Trans_Ct <= 0.4\nsquared_error = 0.0\nsamples = 1930\nvalue = 1.0"] ;
266 -> 322 ;
323 [label="Total_Trans_Amt <= 0.2\nsquared_error = 0.0\nsamples = 58\nvalue = 1.0"] ;
322 -> 323 ;
324 [label="Credit_Limit <= 0.0\nsquared_error = 0.0\nsamples = 57\nvalue = 1.0"] ;
323 -> 324 ;
325 [label="Credit_Limit <= 0.0\nsquared_error = 0.1\nsamples = 3\nvalue = 0.9"] ;
324 -> 325 ;
326 [label="squared_error = 0.0\nsamples = 2\nvalue = 1.0"] ;
325 -> 326 ;
327 [label="squared_error = 0.0\nsamples = 1\nvalue = 0.0"] ;
325 -> 327 ;
328 [label="squared_error = 0.0\nsamples = 54\nvalue = 1.0"] ;
324 -> 328 ;
329 [label="squared_error = 0.0\nsamples = 1\nvalue = 0.0"] ;
323 -> 329 ;
330 [label="Total_Trans_Amt <= 0.3\nsquared_error = 0.0\nsamples = 1872\nvalue = 1.0"] ;
322 -> 330 ;
331 [label="Total_Trans_Amt <= 0.1\nsquared_error = 0.0\nsamples = 1850\nvalue = 1.0"] ;
330 -> 331 ;
332 [label="Total_Trans_Amt <= 0.1\nsquared_error = 0.0\nsamples = 48\nvalue = 1.0"] ;
331 -> 332 ;
333 [label="Total_Revolving_Bal <= 0.9\nsquared_error = 0.0\nsamples = 47\nvalue = 1.0"] ;
332 -> 333 ;
334 [label="squared_error = 0.0\nsamples = 44\nvalue = 1.0"] ;
333 -> 334 ;
335 [label="Customer_Age <= 0.2\nsquared_error = 0.2\nsamples = 3\nvalue = 0.8"] ;
333 -> 335 ;
336 [label="squared_error = 0.0\nsamples = 2\nvalue = 1.0"] ;
335 -> 336 ;
337 [label="squared_error = 0.0\nsamples = 1\nvalue = 0.0"] ;
335 -> 337 ;
338 [label="squared_error = 0.0\nsamples = 1\nvalue = 0.0"] ;
332 -> 338 ;
339 [label="squared_error = 0.0\nsamples = 1802\nvalue = 1.0"] ;
331 -> 339 ;
340 [label="Total_Amt_Chng_Q4_Q1 <= 0.3\nsquared_error = 0.1\nsamples = 22\nvalue = 0.9"] ;
330 -> 340 ;
341 [label="squared_error = 0.0\nsamples = 21\nvalue = 1.0"] ;
340 -> 341 ;
342 [label="squared_error = 0.0\nsamples = 1\nvalue = 0.0"] ;
340 -> 342 ;
343 [label="squared_error = 0.0\nsamples = 3\nvalue = 0.0"] ;
265 -> 343 ;
344 [label="Total_Trans_Ct <= 0.5\nsquared_error = 0.1\nsamples = 655\nvalue = 0.9"] ;
264 -> 344 ;
345 [label="Total_Amt_Chng_Q4_Q1 <= 0.2\nsquared_error = 0.2\nsamples = 96\nvalue = 0.2"] ;
344 -> 345 ;
346 [label="Total_Revolving_Bal <= 0.3\nsquared_error = 0.2\nsamples = 29\nvalue = 0.5"] ;
345 -> 346 ;
347 [label="Total_Trans_Amt <= 0.4\nsquared_error = 0.2\nsamples = 11\nvalue = 0.2"] ;
346 -> 347 ;
348 [label="squared_error = 0.0\nsamples = 8\nvalue = 0.0"] ;
347 -> 348 ;
349 [label="Total_Trans_Amt <= 0.4\nsquared_error = 0.2\nsamples = 3\nvalue = 0.8"] ;
347 -> 349 ;
350 [label="squared_error = 0.0\nsamples = 2\nvalue = 1.0"] ;
349 -> 350 ;
351 [label="squared_error = 0.0\nsamples = 1\nvalue = 0.0"] ;
349 -> 351 ;
352 [label="Total_Trans_Amt <= 0.4\nsquared_error = 0.2\nsamples = 18\nvalue = 0.8"] ;
346 -> 352 ;
353 [label="Total_Ct_Chng_Q4_Q1 <= 0.1\nsquared_error = 0.0\nsamples = 13\nvalue = 1.0"] ;
352 -> 353 ;
354 [label="squared_error = 0.0\nsamples = 1\nvalue = 0.0"] ;
353 -> 354 ;
355 [label="squared_error = 0.0\nsamples = 12\nvalue = 1.0"] ;
353 -> 355 ;
356 [label="Months_on_book <= 0.8\nsquared_error = 0.2\nsamples = 5\nvalue = 0.2"] ;
352 -> 356 ;
357 [label="squared_error = 0.0\nsamples = 4\nvalue = 0.0"] ;
356 -> 357 ;
358 [label="squared_error = 0.0\nsamples = 1\nvalue = 1.0"] ;
356 -> 358 ;
359 [label="Total_Amt_Chng_Q4_Q1 <= 0.3\nsquared_error = 0.1\nsamples = 67\nvalue = 0.1"] ;
345 -> 359 ;
360 [label="Contacts_Count_12_mon <= 0.3\nsquared_error = 0.0\nsamples = 66\nvalue = 0.0"] ;
359 -> 360 ;
361 [label="Total_Relationship_Count <= 0.3\nsquared_error = 0.2\nsamples = 3\nvalue = 0.8"] ;
360 -> 361 ;
362 [label="squared_error = 0.0\nsamples = 2\nvalue = 1.0"] ;
361 -> 362 ;
363 [label="squared_error = 0.0\nsamples = 1\nvalue = 0.0"] ;
361 -> 363 ;
364 [label="Total_Ct_Chng_Q4_Q1 <= 0.2\nsquared_error = 0.0\nsamples = 63\nvalue = 0.0"] ;
360 -> 364 ;
365 [label="Card_Category <= 0.2\nsquared_error = 0.2\nsamples = 3\nvalue = 0.2"] ;
364 -> 365 ;
366 [label="squared_error = 0.0\nsamples = 2\nvalue = 0.0"] ;
365 -> 366 ;
367 [label="squared_error = 0.0\nsamples = 1\nvalue = 1.0"] ;
365 -> 367 ;
368 [label="squared_error = 0.0\nsamples = 60\nvalue = 0.0"] ;
364 -> 368 ;
369 [label="squared_error = 0.0\nsamples = 1\nvalue = 1.0"] ;
359 -> 369 ;
370 [label="Total_Ct_Chng_Q4_Q1 <= 0.3\nsquared_error = 0.0\nsamples = 559\nvalue = 1.0"] ;
344 -> 370 ;
371 [label="Total_Trans_Ct <= 0.5\nsquared_error = 0.0\nsamples = 557\nvalue = 1.0"] ;
370 -> 371 ;
372 [label="Total_Trans_Amt <= 0.4\nsquared_error = 0.2\nsamples = 10\nvalue = 0.7"] ;
371 -> 372 ;
373 [label="squared_error = 0.0\nsamples = 7\nvalue = 1.0"] ;
372 -> 373 ;
374 [label="squared_error = 0.0\nsamples = 3\nvalue = 0.0"] ;
372 -> 374 ;
375 [label="Months_Inactive_12_mon <= 0.9\nsquared_error = 0.0\nsamples = 547\nvalue = 1.0"] ;
371 -> 375 ;
376 [label="Total_Trans_Ct <= 0.6\nsquared_error = 0.0\nsamples = 542\nvalue = 1.0"] ;
375 -> 376 ;
377 [label="Total_Trans_Amt <= 0.4\nsquared_error = 0.1\nsamples = 83\nvalue = 0.9"] ;
376 -> 377 ;
378 [label="squared_error = 0.0\nsamples = 60\nvalue = 1.0"] ;
377 -> 378 ;
379 [label="Total_Amt_Chng_Q4_Q1 <= 0.2\nsquared_error = 0.2\nsamples = 23\nvalue = 0.8"] ;
377 -> 379 ;
380 [label="Months_Inactive_12_mon <= 0.6\nsquared_error = 0.0\nsamples = 15\nvalue = 1.0"] ;
379 -> 380 ;
381 [label="squared_error = 0.0\nsamples = 14\nvalue = 1.0"] ;
380 -> 381 ;
382 [label="squared_error = 0.0\nsamples = 1\nvalue = 0.0"] ;
380 -> 382 ;
383 [label="Total_Ct_Chng_Q4_Q1 <= 0.2\nsquared_error = 0.2\nsamples = 8\nvalue = 0.4"] ;
379 -> 383 ;
384 [label="squared_error = 0.0\nsamples = 3\nvalue = 1.0"] ;
383 -> 384 ;
385 [label="squared_error = 0.0\nsamples = 5\nvalue = 0.0"] ;
383 -> 385 ;
386 [label="squared_error = 0.0\nsamples = 459\nvalue = 1.0"] ;
376 -> 386 ;
387 [label="Total_Amt_Chng_Q4_Q1 <= 0.3\nsquared_error = 0.2\nsamples = 5\nvalue = 0.7"] ;
375 -> 387 ;
388 [label="squared_error = 0.0\nsamples = 4\nvalue = 1.0"] ;
387 -> 388 ;
389 [label="squared_error = 0.0\nsamples = 1\nvalue = 0.0"] ;
387 -> 389 ;
390 [label="squared_error = 0.0\nsamples = 2\nvalue = 0.0"] ;
370 -> 390 ;
}